<?xml version="1.0" encoding="utf-8"?>
<Root>
  <ActivationFunctions>
    <Fn id="0" name="SteepenedSigmoid" prob="1" />
  </ActivationFunctions>
  <Networks>
    <Network id="41881" birthGen="9" fitness="10.92">
      <Nodes>
        <Node type="bias" id="0" />
        <Node type="in" id="1" />
        <Node type="in" id="2" />
        <Node type="in" id="3" />
        <Node type="in" id="4" />
        <Node type="in" id="5" />
        <Node type="in" id="6" />
        <Node type="out" id="7" />
        <Node type="out" id="8" />
        <Node type="out" id="9" />
        <Node type="hid" id="77" />
        <Node type="hid" id="117" />
        <Node type="hid" id="484" />
        <Node type="hid" id="588" />
      </Nodes>
      <Connections>
        <Con id="27" src="5" tgt="9" wght="0.53549745044494945" />
        <Con id="33" src="2" tgt="7" wght="-1.921563311330498" />
        <Con id="42" src="3" tgt="7" wght="-4.6815311850229708" />
        <Con id="48" src="4" tgt="7" wght="-0.39857103368012448" />
        <Con id="52" src="1" tgt="8" wght="3.6596690267104535" />
        <Con id="56" src="2" tgt="8" wght="0.90029563533599222" />
        <Con id="78" src="6" tgt="77" wght="-2.3782513196850674" />
        <Con id="79" src="77" tgt="7" wght="4.9416281356438141" />
        <Con id="91" src="6" tgt="8" wght="-0.32971023329914884" />
        <Con id="95" src="1" tgt="7" wght="4.0464223118381319" />
        <Con id="96" src="5" tgt="7" wght="2.2233492263195451" />
        <Con id="97" src="3" tgt="8" wght="0.846168792285022" />
        <Con id="98" src="77" tgt="9" wght="-0.99926813960853167" />
        <Con id="108" src="3" tgt="9" wght="-4.98094062890549" />
        <Con id="110" src="6" tgt="7" wght="-3.0997836245705561" />
        <Con id="118" src="3" tgt="117" wght="-0.94227426391881508" />
        <Con id="119" src="117" tgt="8" wght="3.9300235549118288" />
        <Con id="125" src="3" tgt="77" wght="-4.9006570842060224" />
        <Con id="126" src="2" tgt="9" wght="0.029182074164953532" />
        <Con id="180" src="117" tgt="77" wght="-0.64980370231961515" />
        <Con id="399" src="4" tgt="77" wght="0.061938102823086316" />
        <Con id="405" src="1" tgt="9" wght="0.841003715499859" />
        <Con id="441" src="2" tgt="117" wght="3.7076445459826868" />
        <Con id="448" src="1" tgt="77" wght="2.748257070244545" />
        <Con id="460" src="2" tgt="77" wght="1.4815585220635905" />
        <Con id="485" src="0" tgt="484" wght="-4.3300309893041149" />
        <Con id="574" src="484" tgt="7" wght="-0.12020037444379071" />
        <Con id="589" src="484" tgt="588" wght="1.0035532347409171" />
        <Con id="590" src="588" tgt="77" wght="2.78078444314815" />
        <Con id="617" src="0" tgt="7" wght="2.3375225358878344" />
        <Con id="618" src="3" tgt="484" wght="-4.9521262745710066" />
        <Con id="708" src="1" tgt="117" wght="0.77405639762212852" />
        <Con id="719" src="4" tgt="484" wght="-0.28388885635982464" />
        <Con id="726" src="5" tgt="484" wght="1.6233845612229241" />
        <Con id="730" src="484" tgt="77" wght="-2.8504115925675428" />
        <Con id="749" src="2" tgt="484" wght="-2.1894772854086813" />
        <Con id="782" src="6" tgt="484" wght="-4.5712128267644658" />
        <Con id="1001" src="117" tgt="484" wght="-4.57511698078218" />
      </Connections>
    </Network>
  </Networks>
</Root>