<?xml version="1.0" encoding="utf-8"?>
<Root>
  <ActivationFunctions>
    <Fn id="0" name="SteepenedSigmoid" prob="1" />
  </ActivationFunctions>
  <Networks>
    <Network id="26435" birthGen="208" fitness="3.92">
      <Nodes>
        <Node type="bias" id="0" />
        <Node type="in" id="1" />
        <Node type="in" id="2" />
        <Node type="in" id="3" />
        <Node type="in" id="4" />
        <Node type="in" id="5" />
        <Node type="in" id="6" />
        <Node type="out" id="7" />
        <Node type="out" id="8" />
        <Node type="out" id="9" />
        <Node type="hid" id="77" />
        <Node type="hid" id="117" />
        <Node type="hid" id="484" />
      </Nodes>
      <Connections>
        <Con id="27" src="5" tgt="9" wght="0.28425849785405555" />
        <Con id="33" src="2" tgt="7" wght="-4.9304413698281877" />
        <Con id="42" src="3" tgt="7" wght="-5" />
        <Con id="48" src="4" tgt="7" wght="-0.096320583396140622" />
        <Con id="52" src="1" tgt="8" wght="2.0717852462883406" />
        <Con id="56" src="2" tgt="8" wght="1.5146232046874712" />
        <Con id="78" src="6" tgt="77" wght="2.5165392410975063" />
        <Con id="79" src="77" tgt="7" wght="3.3602247452473386" />
        <Con id="91" src="6" tgt="8" wght="-0.33059027068274693" />
        <Con id="95" src="1" tgt="7" wght="3.4997857471665421" />
        <Con id="96" src="5" tgt="7" wght="-0.66790266938176523" />
        <Con id="97" src="3" tgt="8" wght="1.0181965666300055" />
        <Con id="98" src="77" tgt="9" wght="-0.21178499134737852" />
        <Con id="103" src="4" tgt="9" wght="-0.16834252526413798" />
        <Con id="108" src="3" tgt="9" wght="-4.8150719780205282" />
        <Con id="110" src="6" tgt="7" wght="-3.9283464807386239" />
        <Con id="118" src="3" tgt="117" wght="-2.9086682873245211" />
        <Con id="119" src="117" tgt="8" wght="3.87524841300715" />
        <Con id="125" src="3" tgt="77" wght="-3.6202842820303385" />
        <Con id="126" src="2" tgt="9" wght="4.5450817934766121" />
        <Con id="180" src="117" tgt="77" wght="3.0732137891142917" />
        <Con id="399" src="4" tgt="77" wght="0.3608172545561189" />
        <Con id="405" src="1" tgt="9" wght="2.3975172320767726" />
        <Con id="441" src="2" tgt="117" wght="4.3646989718285756" />
        <Con id="448" src="1" tgt="77" wght="2.8245325737078826" />
        <Con id="452" src="5" tgt="77" wght="2.5006859842687845" />
        <Con id="460" src="2" tgt="77" wght="4.5521698380259554" />
        <Con id="485" src="0" tgt="484" wght="-1.1119379566704231" />
      </Connections>
    </Network>
  </Networks>
</Root>